<?xml version="1.0"?>
<opencv_storage>
<cascade>
  <stageType>BOOST</stageType>
  <featureType>LBP</featureType>
  <height>48</height>
  <width>48</width>
  <stageParams>
    <boostType>GAB</boostType>
    <minHitRate>9.9500000476837158e-01</minHitRate>
    <maxFalseAlarm>5.0000000000000000e-01</maxFalseAlarm>
    <weightTrimRate>9.4999999999999996e-01</weightTrimRate>
    <maxDepth>1</maxDepth>
    <maxWeakCount>100</maxWeakCount></stageParams>
  <featureParams>
    <maxCatCount>256</maxCatCount>
    <featSize>1</featSize></featureParams>
  <stageNum>3</stageNum>
  <stages>
    <!-- stage 0 -->
    <_>
      <maxWeakCount>2</maxWeakCount>
      <stageThreshold>-8.3211854100227356e-02</stageThreshold>
      <weakClassifiers>
        <_>
          <internalNodes>
            0 -1 1 -1214825473 -138439271 1494441471 -10644203
            -1685341185 -1078212455 -643784705 -282625</internalNodes>
          <leafValues>
            -9.9935442209243774e-01 9.4285714626312256e-01</leafValues></_>
        <_>
          <internalNodes>
            0 -1 6 1912035327 -2240165 -3549697 -2106017 -70517761
            -68183361 -1178887169 -4206593</internalNodes>
          <leafValues>
            -9.9932038784027100e-01 9.1614258289337158e-01</leafValues></_></weakClassifiers></_>
    <!-- stage 1 -->
    <_>
      <maxWeakCount>3</maxWeakCount>
      <stageThreshold>-1.1458486318588257e+00</stageThreshold>
      <weakClassifiers>
        <_>
          <internalNodes>
            0 -1 4 -2097153 -140905781 1428287965 -241974293 -70255617
            -342257575 -108274213 -2097153</internalNodes>
          <leafValues>
            -9.9548679590225220e-01 9.0099012851715088e-01</leafValues></_>
        <_>
          <internalNodes>
            0 -1 0 -136314881 -144714241 -786697729 -10497638 -558895105
            -73692981 -588789089 -2098181</internalNodes>
          <leafValues>
            -9.9111634492874146e-01 8.8146620988845825e-01</leafValues></_>
        <_>
          <internalNodes>
            0 -1 2 -1025 -7105167 -711192610 -12238414 -72623105
            -69107571 -3409521 -1049601</internalNodes>
          <leafValues>
            -9.9612116813659668e-01 8.4075450897216797e-01</leafValues></_></weakClassifiers></_>
    <!-- stage 2 -->
    <_>
      <maxWeakCount>3</maxWeakCount>
      <stageThreshold>-1.2458341121673584e+00</stageThreshold>
      <weakClassifiers>
        <_>
          <internalNodes>
            0 -1 5 -1 -1 -1 -1 -525345 -656385 -1 -1</internalNodes>
          <leafValues>
            -9.9098807573318481e-01 8.5416668653488159e-01</leafValues></_>
        <_>
          <internalNodes>
            0 -1 3 -36579329 -43521 -44966401 -2139137 -1142293509
            -278533 -1416896513 -4404801</internalNodes>
          <leafValues>
            -9.9242532253265381e-01 7.9420489072799683e-01</leafValues></_>
        <_>
          <internalNodes>
            0 -1 7 -1 -513 -12847169 -1 -65 -67108865 -4 -1</internalNodes>
          <leafValues>
            -9.9448460340499878e-01 7.3757928609848022e-01</leafValues></_></weakClassifiers></_></stages>
  <features>
    <_>
      <rect>
        0 24 7 5</rect></_>
    <_>
      <rect>
        2 11 14 3</rect></_>
    <_>
      <rect>
        3 16 15 6</rect></_>
    <_>
      <rect>
        3 30 10 1</rect></_>
    <_>
      <rect>
        6 21 6 5</rect></_>
    <_>
      <rect>
        7 20 5 5</rect></_>
    <_>
      <rect>
        24 14 6 2</rect></_>
    <_>
      <rect>
        28 25 6 4</rect></_></features></cascade>
</opencv_storage>
