<?xml version="1.0"?>
<opencv_storage>
<cascade>
  <stageType>BOOST</stageType>
  <featureType>LBP</featureType>
  <height>96</height>
  <width>48</width>
  <stageParams>
    <boostType>GAB</boostType>
    <minHitRate>9.9994999170303345e-01</minHitRate>
    <maxFalseAlarm>3.0000001192092896e-01</maxFalseAlarm>
    <weightTrimRate>9.4999999999999996e-01</weightTrimRate>
    <maxDepth>1</maxDepth>
    <maxWeakCount>100</maxWeakCount></stageParams>
  <featureParams>
    <maxCatCount>256</maxCatCount>
    <featSize>1</featSize></featureParams>
  <stageNum>4</stageNum>
  <stages>
    <!-- stage 0 -->
    <_>
      <maxWeakCount>2</maxWeakCount>
      <stageThreshold>-1.1708965897560120e-01</stageThreshold>
      <weakClassifiers>
        <_>
          <internalNodes>
            0 -1 0 -773850113 -140524777 -2117779139 -137903701
            -616319057 -620380017 -2129198193 -17409</internalNodes>
          <leafValues>
            -9.9167054891586304e-01 9.2715233564376831e-01</leafValues></_>
        <_>
          <internalNodes>
            0 -1 7 -1746927617 -145370673 353628671 -11037393
            -1644184577 -7371816 -1413743617 -1025</internalNodes>
          <leafValues>
            -9.9806421995162964e-01 8.7458086013793945e-01</leafValues></_></weakClassifiers></_>
    <!-- stage 1 -->
    <_>
      <maxWeakCount>2</maxWeakCount>
      <stageThreshold>-1.0368318110704422e-01</stageThreshold>
      <weakClassifiers>
        <_>
          <internalNodes>
            0 -1 8 -35651585 -645361254 -787678821 -33709985 -661988437
            -125110908 -527696673 -1048641</internalNodes>
          <leafValues>
            -9.9627906084060669e-01 8.9137381315231323e-01</leafValues></_>
        <_>
          <internalNodes>
            0 -1 2 -6291457 -14695681 1427228117 -540938029 -754323495
            -74202976 -1005846547 -69207637</internalNodes>
          <leafValues>
            -9.9505698680877686e-01 9.0798956155776978e-01</leafValues></_></weakClassifiers></_>
    <!-- stage 2 -->
    <_>
      <maxWeakCount>2</maxWeakCount>
      <stageThreshold>-1.8251624703407288e-01</stageThreshold>
      <weakClassifiers>
        <_>
          <internalNodes>
            0 -1 6 -1 -269486209 -8913441 -9217 -541069313 -263713
            -262145 -5</internalNodes>
          <leafValues>
            -9.9252337217330933e-01 8.0804955959320068e-01</leafValues></_>
        <_>
          <internalNodes>
            0 -1 5 -134217729 -2100225 -34079753 -97 -18744321 -4199441
            -2367497 -262209</internalNodes>
          <leafValues>
            -9.9056577682495117e-01 8.3431774377822876e-01</leafValues></_></weakClassifiers></_>
    <!-- stage 3 -->
    <_>
      <maxWeakCount>3</maxWeakCount>
      <stageThreshold>-1.1719611883163452e+00</stageThreshold>
      <weakClassifiers>
        <_>
          <internalNodes>
            0 -1 3 -1 -2106369 -572522497 -262145 -6292609 -2372993 -1
            -1</internalNodes>
          <leafValues>
            -9.9066293239593506e-01 8.0685359239578247e-01</leafValues></_>
        <_>
          <internalNodes>
            0 -1 4 -1 -2049 -1076887553 -69337089 -2097153 -67128389 -1
            -1027</internalNodes>
          <leafValues>
            -9.8530101776123047e-01 8.1580275297164917e-01</leafValues></_>
        <_>
          <internalNodes>
            0 -1 1 -3 -69206019 -740823329 -1153 -8392961 -17831629
            -88605713 -1</internalNodes>
          <leafValues>
            -9.8390722274780273e-01 8.0400276184082031e-01</leafValues></_></weakClassifiers></_></stages>
  <features>
    <_>
      <rect>
        4 48 3 13</rect></_>
    <_>
      <rect>
        5 28 2 13</rect></_>
    <_>
      <rect>
        7 76 3 4</rect></_>
    <_>
      <rect>
        8 71 2 2</rect></_>
    <_>
      <rect>
        8 79 2 3</rect></_>
    <_>
      <rect>
        13 2 6 3</rect></_>
    <_>
      <rect>
        21 82 4 3</rect></_>
    <_>
      <rect>
        24 76 4 4</rect></_>
    <_>
      <rect>
        28 52 4 4</rect></_></features></cascade>
</opencv_storage>
